{
  "version": "1.0",
  "ebm": {
    "outputs": [
      {
        "task": "regression",
        "min_target": -766.1184827417799,
        "max_target": 792.6683094391077,
        "link": "identity",
        "link_param": "nan"
      }
    ],
    "intercept": [
      74.55797196391077
    ],
    "bagged_intercept": [
      74.5424741252115,
      74.53677382875776,
      74.56315888197311,
      74.57680807582491,
      74.51895365904649,
      74.58825041390135,
      74.58024545999292,
      74.55711126657813
    ],
    "bag_weights": [
      279213.0,
      279213.0,
      279213.0,
      279213.0,
      279213.0,
      279213.0,
      279213.0,
      279213.0
    ],
    "breakpoint_iteration": [
      [
        4960,
        4958,
        4999,
        4999,
        4699,
        4438,
        4999,
        3936
      ],
      [
        4999,
        4999,
        4999,
        4999,
        4999,
        4999,
        4999,
        4999
      ]
    ],
    "implementation": "python",
    "implementation_params": {
      "feature_names": [
        "x_0",
        "y_0",
        "x_1",
        "y_1",
        "x_2",
        "y_2",
        "x_3",
        "y_3",
        "x_4",
        "y_4",
        "x_5",
        "y_5",
        "x_6",
        "y_6",
        "w_0",
        "h_0",
        "w_1",
        "h_1",
        "w_2",
        "h_2",
        "w_3",
        "h_3",
        "w_4",
        "h_4",
        "w_5",
        "h_5",
        "w_6",
        "h_6",
        "w_7",
        "h_7",
        "losts",
        "occluded",
        "generated"
      ],
      "feature_types": null,
      "max_bins": 256,
      "max_interaction_bins": 32,
      "interactions": 10,
      "exclude": [],
      "validation_size": 0.15,
      "outer_bags": 8,
      "inner_bags": 0,
      "learning_rate": 0.01,
      "greediness": 0.0,
      "smoothing_rounds": 0,
      "max_rounds": 5000,
      "early_stopping_rounds": 50,
      "early_stopping_tolerance": 0.0001,
      "min_samples_leaf": 2,
      "max_leaves": 3,
      "objective": "rmse",
      "n_jobs": -2,
      "random_state": 42
    },
    "features": [
      {
        "name": "x_0",
        "type": "continuous",
        "num_unique_vals": 79855,
        "cuts": [
          [
            -267.9724877143253,
            -224.84295752111848,
            -193.48568212108432,
            -171.5181897004793,
            -160.89824660601946,
            -152.27988169424384,
            -147.0849346347705,
            -142.86699321222352,
            -139.58957743205343,
            -136.75108513870947,
            -134.5011167776304,
            -132.39267824270246,
            -130.58649923270383,
            -129.00273076926476,
            -127.50306265378595,
            -126.13431391506373,
            -124.84363613792272,
            -123.49945948784831,
            -122.40268595625761,
            -121.0755738450149,
            -120.02130535798119,
            -119.00018344955251,
            -118.1541654851107,
            -117.25955936736024,
            -116.4016892435783,
            -115.50009703615459,
            -114.99999999999999,
            -114.00005482453503,
            -113.32226466258955,
            -112.57142193790443,
            -111.99982118389073,
            -111.1865493392327,
            -110.59324291955464,
            -109.96303322651923,
            -109.16124554787153,
            -108.73292408349377,
            -108.0639929081285,
            -107.61487517567139,
            -107.00030567439671,
            -106.500310686749,
            -105.99977358442203,
            -105.38485579258216,
            -104.93589011193808,
            -104.35516828020047,
            -103.94469683442249,
            -103.38708445379527,
            -102.99999999999999,
            -102.41366111541785,
            -101.99959524933831,
            -101.49908524475285,
            -101.00040148138608,
            -100.96530550829975,
            -100.50096546040653,
            -100.00192008147607,
            -99.5010713565406,
            -99.00093156304996,
            -98.50047753648948,
            -98.0,
            -97.50004203445013,
            -97.00167851995886,
            -96.99994304262759,
            -96.5004991180155,
            -96.0,
            -95.99862883444759,
            -95.5,
            -95.00008477562199,
            -94.50086952752733,
            -94.00214888704556,
            -93.50016467439082,
            -93.00009749836568,
            -92.99999999999999,
            -92.50044577557966,
            -92.17528086704361,
            -91.99796099945499,
            -91.50004692088173,
            -91.00019796337025,
            -90.80053910438964,
            -90.4996712334399,
            -90.0,
            -89.84404656237776,
            -89.49888953654714,
            -89.0,
            -88.80507614568292,
            -88.49939156470012,
            -88.00052541461841,
            -87.8122550196186,
            -87.4996027724716,
            -87.00052995720141,
            -86.99999999999999,
            -86.5002097132939,
            -86.21627749000493,
            -85.999777406377,
            -85.50041918214328,
            -85.00157061985638,
            -84.99963332655057,
            -84.50053973747683,
            -84.13358369642648,
            -83.9997600117008,
            -83.5510399885375,
            -83.44949143824576,
            -83.00040703154349,
            -82.99999999999999,
            -82.49994502543936,
            -82.0,
            -81.72995459102765,
            -81.49905371982732,
            -81.00003501609228,
            -80.99998039802223,
            -80.5,
            -80.16392533391164,
            -79.99999999999999,
            -79.5,
            -79.00138717869406,
            -78.5,
            -78.00016968288878,
            -77.50044996253108,
            -77.14535457774602,
            -76.99999999999999,
            -76.49954071443034,
            -75.99927967046813,
            -75.49999999999999,
            -74.99999999999999,
            -74.49999999999999,
            -73.99999999999999,
            -73.50037452992673,
            -73.00161156796811,
            -72.99999999999999,
            -72.50019770836357,
            -72.0,
            -71.88611022861679,
            -71.49999999999999,
            -70.99856067813141,
            -70.4997604532178,
            -69.99920516265769,
            -69.49977942104556,
            -69.00069266141836,
            -68.99971711583379,
            -68.50088075320024,
            -68.1379666072352,
            -67.99959450450237,
            -67.50012771367918,
            -67.00021895341358,
            -66.77672352580679,
            -66.2872536767062,
            -65.9995645293099,
            -65.49999999999999,
            -64.99999999999999,
            -64.44047055539933,
            -63.99999999999999,
            -63.36949900148767,
            -62.99999999999999,
            -62.442090494196485,
            -61.99999999999999,
            -61.49999999999999,
            -61.0,
            -60.99999999999999,
            -60.41104916031455,
            -59.92662179699436,
            -59.306735619167256,
            -58.99999999999999,
            -58.26582531631727,
            -57.839035915952195,
            -57.22726701007875,
            -56.79990259562556,
            -56.0,
            -55.49999999999999,
            -54.93475823095858,
            -54.05050898657895,
            -53.5,
            -52.99999999999999,
            -52.0934072174933,
            -51.5,
            -50.99999999999999,
            -50.03997535280436,
            -49.5,
            -48.99999999999999,
            -48.0,
            -47.49999999999999,
            -46.65525352620012,
            -45.99999999999999,
            -45.0,
            -44.467211346162195,
            -43.53363994337248,
            -42.99999999999999,
            -41.99999999999999,
            -40.99999999999999,
            -39.99999999999999,
            -38.99999999999999,
            -37.99999999999999,
            -36.99999999999999,
            -35.99999999999999,
            -34.99999999999999,
            -33.97795353223321,
            -32.99999999999999,
            -31.893419114758547,
            -30.857738089497094,
            -29.676460498049757,
            -28.621670111997304,
            -27.724503050842742,
            -26.764284467867302,
            -25.5,
            -24.499999999999996,
            -23.395812254820555,
            -22.000000000000004,
            -21.067122511913357,
            -20.0,
            -19.23203926108394,
            -18.0,
            -17.029040938764506,
            -16.0,
            -15.237399159825099,
            -14.0,
            -13.0,
            -12.0,
            -11.0,
            -10.0,
            -9.499999999999998,
            -8.946326647509363,
            -8.0,
            -7.999999999999999,
            -7.0710678118654755,
            -6.831742193106997,
            -6.0,
            -5.999999999999999,
            -5.5,
            -5.0,
            -4.5,
            -4.0,
            -3.9999999999999996,
            -3.0,
            -2.9999999999999996,
            -2.4999999999999996,
            -2.0,
            -1.9414506867883017,
            -1.3416407864998738,
            -0.9999999999999999,
            -1.5308084989341915e-17,
            1.5308084989341915e-17,
            1.0,
            1.118033988749895,
            1.7944271909999157,
            2.0000000000000004,
            3.0000000000000004,
            4.000000000000001,
            5.582373623341887,
            7.000000000000001,
            9.500000000000002,
            13.43419253168452,
            18.000000000000004,
            24.9998113193307,
            33.4836641905286,
            44.963270571377365,
            63.25
          ],
          [
            -137.00396248136065,
            -121.59444739607139,
            -113.0,
            -106.99989523013656,
            -101.81182579834226,
            -97.85393518791454,
            -94.28216480557461,
            -91.00019796337025,
            -88.11328206769437,
            -85.00157061985638,
            -82.06047856264573,
            -79.00991257024745,
            -76.0000130996717,
            -72.99999999999999,
            -69.50013200423743,
            -65.9995645293099,
            -61.49999999999999,
            -56.51061987759327,
            -50.0,
            -42.99999999999999,
            -33.153141633069666,
            -20.999999999999996,
            -11.660957948721684,
            -6.0,
            -3.0,
            -1.5,
            -1.5308084989341915e-17,
            1.5308084989341915e-17,
            2.0000000000000004
          ]
        ],
        "min": -721.5,
        "max": 608.5,
        "histogram_weights": [
          0.0,
          1.0,
          0.0,
          7.0,
          1.0,
          19.0,
          40.0,
          90.0,
          162.0,
          360.0,
          909.0,
          1395.0,
          8025.0,
          83093.0,
          82316.0,
          148092.0,
          3298.0,
          500.0,
          89.0,
          44.0,
          22.0,
          6.0,
          10.0,
          2.0,
          1.0,
          3.0,
          0.0,
          2.0,
          0.0
        ]
      },
      {
        "name": "y_0",
        "type": "continuous",
        "num_unique_vals": 97629,
        "cuts": [
          [
            -75.22751247508566,
            -60.94854375745446,
            -52.47514794985209,
            -47.05701111173835,
            -42.987657490067974,
            -39.55624924941554,
            -36.964726676001305,
            -34.61212933413147,
            -32.69548158813866,
            -31.09861874089009,
            -29.281051747582293,
            -28.0,
            -26.833838283092604,
            -25.531016555293007,
            -24.639566968360313,
            -23.959727250180528,
            -22.999999999999996,
            -22.05643866281423,
            -21.33397434934385,
            -20.523907260333477,
            -20.000000000000004,
            -19.499999999999993,
            -18.782971010998235,
            -18.151371188599438,
            -17.684699299429234,
            -17.044428629899066,
            -16.516716788158924,
            -16.150505654725976,
            -15.999999999999998,
            -15.499999999999993,
            -14.981655449248601,
            -14.5,
            -14.055646912585086,
            -13.725624862357657,
            -13.255019849327297,
            -12.846390578614079,
            -12.5,
            -12.25809071562514,
            -12.000000000000007,
            -11.999999999999998,
            -11.594188470396604,
            -11.22643883275759,
            -10.999999999999998,
            -10.643736784632141,
            -10.398938937914908,
            -10.007018085269163,
            -9.923416807543555,
            -9.546250370226144,
            -9.288542782752685,
            -9.0,
            -8.771571614593167,
            -8.5,
            -8.29251444321883,
            -8.00000000000001,
            -8.0,
            -7.999999999999999,
            -7.754285160455675,
            -7.500000000000003,
            -7.276068751089986,
            -7.00000000000001,
            -6.999999999999999,
            -6.72158342330388,
            -6.5,
            -6.35297920881111,
            -6.063390625908324,
            -6.000000000000002,
            -5.999999999999999,
            -5.813776741499452,
            -5.533985905294663,
            -5.463919810211074,
            -5.200000000000006,
            -5.0,
            -4.902903378454598,
            -4.591661382393327,
            -4.5,
            -4.499999999999999,
            -4.242640687119286,
            -4.000000000000013,
            -4.00000000000001,
            -4.000000000000007,
            -4.0,
            -3.9999999999999996,
            -3.8890872965260113,
            -3.6167777207178577,
            -3.500000000000004,
            -3.4999999999999996,
            -3.3203369482223595,
            -3.1058474221389325,
            -3.0,
            -2.9999999999999942,
            -2.8190457276367558,
            -2.607675935404801,
            -2.5,
            -2.4999999999999996,
            -2.315230899423868,
            -2.0978011064956115,
            -2.0000000000000093,
            -2.0000000000000044,
            -2.0,
            -1.9999999999999998,
            -1.940285000290664,
            -1.6825847991998972,
            -1.5,
            -1.4999999999999998,
            -1.3163861682947886,
            -1.0606601717798214,
            -1.0,
            -0.9999999999999999,
            -0.9135002783911402,
            -0.7276068751089978,
            -0.5367659033965552,
            -0.49999999999999994,
            -0.3535533905932733,
            -0.12751376020265082,
            -1.3562963300556937e-14,
            -1.1725993101835906e-14,
            -1.0685043322560657e-14,
            -1.007271992298698e-14,
            -9.337931843498568e-15,
            -8.618451848999499e-15,
            -7.761199089596351e-15,
            -6.995794840129255e-15,
            -5.6639914460565085e-15,
            -4.39342039194113e-15,
            -2.525834023241416e-15,
            -9.894590807402618e-16,
            -4.947295403701309e-16,
            -2.4736477018506546e-16,
            -1.2368238509253273e-16,
            -6.938893903907228e-18,
            1.3877787807814457e-17,
            1.598071517935963e-16,
            3.932941341708473e-16,
            1.6838893488276107e-15,
            5.28128932132296e-15,
            0.12403473458920072,
            0.35267608147920176,
            0.49999999999999534,
            0.5000000000000001,
            0.6813210698039565,
            0.8497495328902538,
            0.9999999999999929,
            1.0,
            1.0000000000000002,
            1.129053835912213,
            1.4000000000000021,
            1.5,
            1.5000000000000002,
            1.699546114554529,
            1.9281791825242134,
            1.999999999999991,
            1.9999999999999956,
            2.0,
            2.0000000000000004,
            2.000000000000006,
            2.182820625327005,
            2.4253562503633295,
            2.5,
            2.5000000000000004,
            2.7017909858383975,
            2.912176030182467,
            3.0,
            3.0000000000000027,
            3.1898037382033184,
            3.4618930571017215,
            3.5,
            3.5000000000000004,
            3.648867437526656,
            3.904748240735809,
            3.9999999999999885,
            3.999999999999991,
            3.9999999999999942,
            4.0,
            4.000000000000001,
            4.123105625617659,
            4.438772657244639,
            4.5,
            4.500000000000001,
            4.767164833610749,
            4.999999999999992,
            5.000000000000006,
            5.296437867945304,
            5.499999999999999,
            5.663212053506195,
            5.9658549235188545,
            6.0,
            6.000000000000001,
            6.184658438426494,
            6.4826692033451785,
            6.500000000000002,
            6.822557973172325,
            6.999999999999995,
            7.000000000000001,
            7.271723006224746,
            7.5,
            7.742015393398755,
            7.999999999999989,
            8.0,
            8.000000000000002,
            8.277050373304913,
            8.499999999999996,
            8.597853041491067,
            8.999999999999986,
            9.000000000000005,
            9.364622461485231,
            9.687122739380227,
            10.0,
            10.249196621690562,
            10.500000000000002,
            10.922764194647048,
            11.014905230456574,
            11.499999999999986,
            11.792333047166395,
            12.0,
            12.020815280171309,
            12.49999999999999,
            12.649110640673516,
            13.000000000000002,
            13.5,
            13.99999999999999,
            14.315971824145892,
            14.7299230498867,
            15.268869572181814,
            15.81418791126697,
            16.000000000000004,
            16.500000000000004,
            17.009162875085035,
            17.738540396542763,
            18.17632057659779,
            18.846116524775105,
            19.545781362247293,
            20.000000000000004,
            20.610167377632933,
            21.383185005565842,
            22.002501943165043,
            22.880474878503858,
            23.78737625974299,
            24.519171561830376,
            25.5,
            26.626860987119702,
            27.920073275799908,
            29.0,
            30.500000000000004,
            32.11392998830652,
            33.869328699042484,
            36.0,
            38.00000000000001,
            40.99999999999999,
            44.32506640102369,
            48.66569892606204,
            54.00000000000001,
            62.61565452539256,
            79.29282031401505
          ]
        ],
        "min": -690.0,
        "max": 497.3755832244734,
        "histogram_weights": [
          0.0,
          3.0,
          1.0,
          2.0,
          0.0,
          0.0,
          1.0,
          3.0,
          4.0,
          9.0,
          13.0,
          19.0,
          47.0,
          117.0,
          643.0,
          7799.0,
          290876.0,
          26819.0,
          1739.0,
          245.0,
          83.0,
          29.0,
          13.0,
          7.0,
          3.0,
          4.0,
          7.0,
          1.0,
          0.0
        ]
      },
      {
        "name": "x_1",
        "type": "continuous",
        "num_unique_vals": 76294,
        "cuts": [
          [
            -232.98847058554622,
            -199.95141725452487,
            -173.266875196797,
            -153.44720855421883,
            -141.64788681360852,
            -134.58652291488437,
            -129.26754956745225,
            -125.47993677117026,
            -122.2943252274043,
            -119.71377136699077,
            -117.70920064774039,
            -115.74984646652878,
            -114.0826198283529,
            -112.63337315446583,
            -111.27486155538165,
            -110.0,
            -108.99929427912876,
            -107.90567014133737,
            -106.98349785120737,
            -105.83429884025836,
            -104.99815654849716,
            -103.9981688434004,
            -102.99984084839963,
            -101.99780046049283,
            -101.07053522079846,
            -100.49937810560445,
            -99.73324424560192,
            -99.0009130370805,
            -98.49999999999999,
            -97.98591642007659,
            -97.37126220343097,
            -96.88228473525004,
            -96.19072345289797,
            -95.66237282401163,
            -95.0,
            -94.54336957921312,
            -94.00144761905274,
            -93.51807591715567,
            -93.0,
            -92.5783183847184,
            -92.00056386320398,
            -91.53909988763606,
            -91.00010655436628,
            -90.5,
            -90.00005341877171,
            -89.57396129168741,
            -89.00254470419097,
            -88.50186040519954,
            -88.00132209552169,
            -87.50081254406479,
            -87.12074953763884,
            -86.99991820295028,
            -86.5001561789225,
            -86.00222556010907,
            -85.50189967750559,
            -85.00100380264072,
            -84.5,
            -84.00000350140041,
            -83.50074341220403,
            -83.0003835700482,
            -82.99940810857964,
            -82.59518970390715,
            -82.40998251454147,
            -82.0,
            -81.73868699167448,
            -81.49968707418861,
            -81.00015325641502,
            -80.9983235682692,
            -80.50041612063588,
            -80.15441011019513,
            -79.99991131265125,
            -79.5,
            -79.00015646727783,
            -78.99981679560531,
            -78.50025821915406,
            -78.1577032716313,
            -77.99978322195872,
            -77.54009936075205,
            -77.42819253992695,
            -77.00031023843233,
            -76.9999825129947,
            -76.50066373923573,
            -76.1161365364332,
            -75.99999999999999,
            -75.57976051862613,
            -75.49695778388663,
            -75.0571515054056,
            -74.9994339579921,
            -74.57963218430703,
            -74.41234738899932,
            -74.0002742012107,
            -73.99999999999999,
            -73.56464587586107,
            -73.39981624938814,
            -73.0,
            -72.99999999999999,
            -72.58252557296244,
            -72.4120264580736,
            -72.0,
            -71.99953837212055,
            -71.4998109993114,
            -71.00020712449933,
            -70.99974964377415,
            -70.6,
            -70.43396370417406,
            -70.00084442737156,
            -69.99856097145985,
            -69.58205463940998,
            -69.41245602563896,
            -69.00044927243701,
            -68.99999999999999,
            -68.50004910978468,
            -68.19976000026205,
            -67.99898611283916,
            -67.49999999999999,
            -67.00245448073053,
            -66.999271925106,
            -66.54500905875204,
            -66.4404426123412,
            -66.00001757262888,
            -65.99930797642696,
            -65.49940502378271,
            -65.00014140240732,
            -64.99977375486861,
            -64.58405513566791,
            -64.44136904855523,
            -64.00083825220725,
            -63.99999999999999,
            -63.5,
            -63.0,
            -62.99999999999999,
            -62.49999999999999,
            -62.0,
            -61.999707187138895,
            -61.580130815057366,
            -61.431457068169465,
            -61.0,
            -60.99999999999999,
            -60.5,
            -60.1652895693648,
            -59.99999999999999,
            -59.5,
            -59.0,
            -58.99999999999999,
            -58.49999999999999,
            -57.99999999999999,
            -57.49999999999999,
            -57.0,
            -56.99951293299489,
            -56.49999999999999,
            -55.99999999999999,
            -55.49999999999999,
            -54.99999999999999,
            -54.5,
            -54.0,
            -53.99999999999999,
            -53.50096982900719,
            -53.000114504023486,
            -52.99999999999999,
            -52.5,
            -52.0,
            -51.99999999999999,
            -51.5,
            -51.0,
            -50.61630643820334,
            -50.0,
            -49.759820307134135,
            -49.270906673727225,
            -48.96988870724539,
            -48.33639580943985,
            -47.99999999999999,
            -47.40848644476442,
            -46.99999999999999,
            -46.423476258727696,
            -45.99054847596615,
            -45.41930803835041,
            -44.99999999999999,
            -44.410396387966095,
            -43.99999999999999,
            -43.290365720309595,
            -42.978486072092,
            -42.25360163595757,
            -41.702054409024626,
            -41.00028463520644,
            -40.5,
            -39.99999999999999,
            -39.0,
            -38.49838051470888,
            -37.5,
            -36.99999999999999,
            -36.238580035603164,
            -35.73696128630304,
            -35.0,
            -34.00171738856354,
            -33.499635962553,
            -32.50415443806138,
            -31.614964779997536,
            -30.999999999999996,
            -29.90769453347138,
            -28.999999999999996,
            -27.999999999999996,
            -26.999999999999996,
            -25.858280102705628,
            -24.827945553397157,
            -23.999999999999996,
            -23.0,
            -22.0,
            -21.04160616326795,
            -20.0,
            -19.258476208254905,
            -18.0,
            -17.0,
            -16.0,
            -15.205262246998569,
            -14.0,
            -13.0,
            -12.0,
            -11.0,
            -10.0,
            -9.499999999999998,
            -8.896008125839803,
            -8.0,
            -7.999999999999999,
            -7.076708453618785,
            -6.8,
            -6.0,
            -5.999999999999999,
            -5.0,
            -4.5,
            -4.0,
            -3.9999999999999996,
            -3.5,
            -3.0,
            -2.9999999999999996,
            -2.4999999999999996,
            -2.0,
            -1.999999999999996,
            -1.341640786499874,
            -0.9999999999999999,
            -1.5308084989341915e-17,
            1.5308084989341915e-17,
            1.0,
            1.258554565733617,
            1.788854381999832,
            2.0000000000000004,
            3.0000000000000004,
            4.000000000000001,
            6.000000000000001,
            9.185479257513272,
            14.000000000000002,
            21.0,
            31.040672443623535,
            46.28945194994547
          ],
          [
            -118.6022887692491,
            -104.99815654849716,
            -97.49966063230293,
            -92.00909146015566,
            -87.82000528954451,
            -84.42860413217485,
            -81.43542705735925,
            -78.6895214916033,
            -76.0000130996717,
            -73.55840040019126,
            -71.00020712449933,
            -68.50004910978468,
            -65.99930797642696,
            -63.3017981344829,
            -60.680867606194305,
            -57.59596886270228,
            -54.0,
            -50.141912437269326,
            -45.23687143958438,
            -39.048235630849604,
            -31.75216528049701,
            -21.241138701549215,
            -11.999999999999998,
            -6.0,
            -3.0,
            -1.5,
            -1.5308084989341915e-17,
            1.5308084989341915e-17,
            2.0000000000000004
          ]
        ],
        "min": -610.5,
        "max": 497.5,
        "histogram_weights": [
          0.0,
          1.0,
          0.0,
          8.0,
          2.0,
          16.0,
          40.0,
          73.0,
          151.0,
          201.0,
          658.0,
          1172.0,
          2285.0,
          22190.0,
          108627.0,
          49770.0,
          140924.0,
          1946.0,
          279.0,
          67.0,
          30.0,
          22.0,
          9.0,
          3.0,
          2.0,
          6.0,
          2.0,
          1.0,
          2.0,
          0.0
        ]
      },
      {
        "name": "y_1",
        "type": "continuous",
        "num_unique_vals": 94962,
        "cuts": [
          [
            -61.97658216353019,
            -49.90326751672963,
            -43.021169772274504,
            -38.44495671109384,
            -35.175312044690386,
            -32.35347223710116,
            -30.0,
            -28.17951287068372,
            -26.569615802962183,
            -25.0,
            -23.999999999999996,
            -22.7212648021426,
            -21.72752987159551,
            -20.773989595763865,
            -20.00000000000001,
            -19.413794845682723,
            -18.55238475279198,
            -17.999999999999996,
            -17.21887640216401,
            -16.569693324998838,
            -16.145891250960837,
            -15.959901296203123,
            -15.338138679709969,
            -14.822150783410411,
            -14.381434628870121,
            -13.999999999999998,
            -13.5,
            -13.000000000000007,
            -12.568491601305043,
            -12.403473458920846,
            -12.000000000000009,
            -11.999999999999996,
            -11.579291916116603,
            -11.19738751018416,
            -10.988845115895119,
            -10.57930851747598,
            -10.306638020031453,
            -10.0,
            -9.796750781076572,
            -9.496237982632028,
            -9.14090780968774,
            -8.999999999999998,
            -8.696263565463044,
            -8.5,
            -8.318172876299217,
            -8.00000000000001,
            -8.0,
            -7.999999999999999,
            -7.740568456469317,
            -7.5,
            -7.27911356743491,
            -7.004356355694623,
            -6.999999999999999,
            -6.726472702234952,
            -6.5,
            -6.34521589119569,
            -6.081118318204319,
            -6.000000000000003,
            -5.9999999999999964,
            -5.813776741499453,
            -5.57370401713154,
            -5.483334480990122,
            -5.272570635534575,
            -5.004796778100564,
            -4.993607466067715,
            -4.783787371051778,
            -4.544951339663715,
            -4.5,
            -4.499999999999999,
            -4.298665285093948,
            -4.084770690656137,
            -4.00000000000001,
            -4.000000000000008,
            -4.000000000000005,
            -4.0,
            -3.9999999999999996,
            -3.9222985900500014,
            -3.721500195084813,
            -3.535533905932736,
            -3.5,
            -3.4999999999999947,
            -3.287979746107152,
            -3.104828335462453,
            -3.0,
            -2.988060236812643,
            -2.7948621051064615,
            -2.6047294263733756,
            -2.5,
            -2.4999999999999996,
            -2.3711071440155163,
            -2.2000277158370904,
            -2.0277776060425206,
            -2.0000000000000075,
            -2.0000000000000036,
            -2.0,
            -1.9999999999999998,
            -1.9999999999999916,
            -1.7888543819998324,
            -1.6018513357530741,
            -1.5,
            -1.4999999999999998,
            -1.3643820804812974,
            -1.1844785421822634,
            -1.0232688856316556,
            -1.0,
            -0.9999999999999999,
            -0.9629717788496253,
            -0.8320502943378422,
            -0.6874819704694748,
            -0.5000000000000113,
            -0.49999999999999994,
            -0.3638034375544989,
            -0.2236067977499786,
            -0.01678450822149752,
            -1.1297366722134333e-14,
            -1.0133952262944348e-14,
            -9.374966285779912e-15,
            -8.848073123839627e-15,
            -8.296982064223317e-15,
            -7.868355684521744e-15,
            -7.317264624905436e-15,
            -6.720249310321101e-15,
            -6.138542080726108e-15,
            -5.2506731513442766e-15,
            -4.2709557120263946e-15,
            -3.4749352925806146e-15,
            -2.095661652669149e-15,
            -9.310873351459491e-16,
            -4.947295403701309e-16,
            -2.4736477018506546e-16,
            -1.2368238509253273e-16,
            -1.3877787807814457e-17,
            1.3877787807814457e-17,
            1.2368238509253273e-16,
            2.6267285517440735e-16,
            6.698447771530691e-16,
            3.2463581823845345e-15,
            4.8917842524700505e-15,
            0.08994435454428612,
            0.24913643956121986,
            0.405818789253937,
            0.5,
            0.5414911538365705,
            0.7067912113567077,
            0.8677218312746191,
            0.9999999999999932,
            1.0,
            1.0000000000000002,
            1.090304565221948,
            1.2729048138916186,
            1.4310835055998612,
            1.5,
            1.5000000000000002,
            1.6439898730535685,
            1.8190171877724939,
            1.9999999999999887,
            1.9999999999999931,
            1.9999999999999964,
            2.0,
            2.0000000000000004,
            2.0000000000000053,
            2.182994255037285,
            2.418098185308045,
            2.5,
            2.5000000000000004,
            2.6832815729997477,
            2.8641173598250065,
            2.9999999999999956,
            3.0000000000000004,
            3.130495168499706,
            3.300765243778971,
            3.4889378514787737,
            3.5,
            3.5000000000000004,
            3.6816571710763144,
            3.9300452254970875,
            3.9999999999999907,
            3.9999999999999925,
            3.999999999999995,
            4.0,
            4.000000000000001,
            4.066982664078756,
            4.264705536209997,
            4.472135954999581,
            4.5,
            4.500000000000001,
            4.7375512906752455,
            4.992870041705002,
            5.000000000000001,
            5.2494839926377335,
            5.491251783869156,
            5.587729785742878,
            5.853345883431809,
            5.999999999999996,
            6.000000000000001,
            6.182518047831701,
            6.4594581028177664,
            6.517300883262838,
            6.823493759929118,
            6.999999999999996,
            7.000000000000005,
            7.278624758728714,
            7.499999999999999,
            7.701744799374592,
            7.999999999999989,
            8.0,
            8.000000000000002,
            8.271807076810788,
            8.499999999999995,
            8.59785304149106,
            8.972131486956897,
            9.000000000000002,
            9.33351959563364,
            9.604570567563378,
            9.961174629530396,
            10.096001450228647,
            10.499999999999988,
            10.735797116519594,
            11.0,
            11.330529220180221,
            11.684320477378456,
            12.0,
            12.074767078498866,
            12.499999999999998,
            12.845606851551047,
            13.255294421048504,
            13.76686408113147,
            14.123180808098033,
            14.560219778561045,
            15.123418686839766,
            15.7277845721249,
            16.000000000000004,
            16.500000000000004,
            17.076851806446548,
            17.850863463802714,
            18.376108672340486,
            19.027179717546783,
            19.887921252979304,
            20.482382673898076,
            21.144433323221172,
            22.191129467168523,
            23.334523779156072,
            24.5,
            25.594150589681462,
            27.18030961503623,
            28.621670111997314,
            30.642554771532495,
            33.0,
            35.99999999999999,
            39.428059023185114,
            43.923919713321894,
            51.0,
            64.98457364276888
          ]
        ],
        "min": -666.5,
        "max": 494.06195169728585,
        "histogram_weights": [
          0.0,
          3.0,
          1.0,
          0.0,
          0.0,
          0.0,
          1.0,
          4.0,
          5.0,
          3.0,
          12.0,
          12.0,
          32.0,
          103.0,
          548.0,
          9897.0,
          306372.0,
          10641.0,
          656.0,
          120.0,
          43.0,
          15.0,
          3.0,
          3.0,
          2.0,
          3.0,
          7.0,
          1.0,
          0.0
        ]
      },
      {
        "name": "x_2",
        "type": "continuous",
        "num_unique_vals": 72136,
        "cuts": [
          [
            -198.2653975923717,
            -170.42446000734736,
            -149.1725950175362,
            -132.03129745571408,
            -121.23793278710389,
            -114.97875045807265,
            -110.00945362857686,
            -106.83742071290848,
            -103.9985938236805,
            -101.50034680465994,
            -99.59777744710543,
            -98.1551626793577,
            -96.57440258042112,
            -95.42370728704806,
            -94.02478148121756,
            -93.04732643432487,
            -92.00211869069891,
            -91.00068680800324,
            -90.00084687549997,
            -89.00115237907865,
            -88.00132209552169,
            -87.40046489157169,
            -86.76256812491846,
            -86.06750073604884,
            -85.49963198067042,
            -84.94891186434515,
            -84.16511378072997,
            -83.55786217520115,
            -83.00042322359167,
            -82.66567082193941,
            -82.17312138743725,
            -81.61566654546898,
            -81.00009743804905,
            -80.58989363606383,
            -80.00082712899469,
            -79.50109866558812,
            -79.00068503832699,
            -78.5763701580711,
            -78.00110590715128,
            -77.50010531294987,
            -77.00073051255,
            -76.50033345017758,
            -76.00027775635809,
            -75.50139269238412,
            -75.00009218277755,
            -74.50046510124494,
            -74.03908519825649,
            -73.88051466018541,
            -73.49913553616739,
            -73.00161156796811,
            -72.83356792248995,
            -72.49889311404989,
            -72.0,
            -71.998941925319,
            -71.50069276524611,
            -71.20642300821396,
            -70.99896361891652,
            -70.55819587455218,
            -70.39266213102178,
            -70.00104088015527,
            -69.99991612209621,
            -69.5881576207409,
            -69.3924817756119,
            -69.00069266141836,
            -68.99994614175193,
            -68.60661814690121,
            -68.47487318643327,
            -68.00005070990133,
            -67.99959450450237,
            -67.58802592184884,
            -67.41893721869923,
            -67.00059681552105,
            -66.97044067508153,
            -66.51211611628338,
            -66.44658774669378,
            -66.00087548867253,
            -65.99999999999999,
            -65.54413611596249,
            -65.42111515009549,
            -65.00073484132217,
            -64.99977375486861,
            -64.50087778103193,
            -64.49988182999715,
            -64.25750658364318,
            -64.00021642663299,
            -63.999962123185846,
            -63.59377328009401,
            -63.42774142505542,
            -63.0,
            -62.99999999999999,
            -62.5,
            -62.49999999999999,
            -62.24403771589948,
            -62.0,
            -61.99999999999999,
            -61.59799520068772,
            -61.399857335642295,
            -61.0,
            -60.99999999999999,
            -60.594798410935525,
            -60.416107214157314,
            -60.0,
            -59.99999999999999,
            -59.74880742086569,
            -59.5,
            -59.49964263841504,
            -59.0,
            -58.99999999999999,
            -58.58687919485986,
            -58.41123593300758,
            -58.00080998637404,
            -57.99999999999999,
            -57.71156729807292,
            -57.50020393108194,
            -57.49999999999999,
            -57.0,
            -56.9995193422578,
            -56.598238515680734,
            -56.453218594450746,
            -56.0,
            -55.97277254512239,
            -55.50043312205304,
            -55.45047821843019,
            -55.0,
            -54.99999999999999,
            -54.56006245357263,
            -54.42278570562514,
            -54.0,
            -53.99999999999999,
            -53.75859453585714,
            -53.5,
            -53.49999999999999,
            -53.00053490998746,
            -52.99999999999999,
            -52.567788747417396,
            -52.388706813880695,
            -52.0,
            -51.99999999999999,
            -51.569825483212966,
            -51.46429904579165,
            -51.0,
            -50.99999999999999,
            -50.6120856106893,
            -50.3999339556302,
            -50.0,
            -49.99999999999999,
            -49.528401835815856,
            -49.45318025374358,
            -49.0,
            -48.99999999999999,
            -48.59948096819531,
            -48.43379835620057,
            -48.0,
            -47.999120292188366,
            -47.5,
            -47.19142823474881,
            -46.99999999999999,
            -46.49999999999999,
            -46.0,
            -45.99999999999999,
            -45.49999999999999,
            -45.00042343774999,
            -44.99999999999999,
            -44.5,
            -44.0,
            -43.99999999999999,
            -43.497355793878924,
            -42.99999999999999,
            -42.49999999999999,
            -41.99999999999999,
            -41.49999999999999,
            -40.99999999999999,
            -40.49999999999999,
            -39.99999999999999,
            -39.49999999999999,
            -38.99999999999999,
            -38.448117198669415,
            -37.99999999999999,
            -37.49999999999999,
            -36.99999999999999,
            -36.33532737794704,
            -35.99999999999999,
            -35.48128097056093,
            -34.99999999999999,
            -34.23848627903665,
            -33.99999999999999,
            -33.49629001605683,
            -32.99999999999999,
            -32.0,
            -31.594723091170287,
            -31.12943748333229,
            -30.500220044622175,
            -29.999999999999996,
            -29.499999999999996,
            -28.89214594939212,
            -28.0,
            -27.5,
            -26.999999999999996,
            -25.999999999999996,
            -25.07646381092325,
            -24.499999999999996,
            -23.999999999999996,
            -23.0,
            -22.38451320696752,
            -21.822831298980567,
            -21.0,
            -20.483803526116716,
            -19.901004999748128,
            -19.002648990562463,
            -18.0,
            -17.0,
            -16.0,
            -15.499999999999998,
            -14.499999999999998,
            -13.86750490563073,
            -13.0,
            -12.401736729460424,
            -11.999999999999998,
            -11.000000000000005,
            -10.499999999999998,
            -9.992587793065672,
            -9.125679292703651,
            -8.72066511224918,
            -8.0,
            -7.999999999999999,
            -7.155417527999327,
            -6.7175144212722016,
            -6.0,
            -5.999999999999999,
            -5.0,
            -4.999999999999999,
            -4.5,
            -4.0,
            -3.9999999999999996,
            -3.5,
            -3.0,
            -2.9999999999999996,
            -2.4999999999999996,
            -2.0,
            -1.9155894643680778,
            -1.389732763445481,
            -0.9999999999999999,
            -1.5308084989341915e-17,
            0.5,
            1.1048860015304849,
            1.8553574604251852,
            2.0000000000000004,
            3.5,
            4.000000000000001,
            7.0,
            11.500000000000002,
            19.00487309802313,
            32.349689437998485
          ],
          [
            -100.49999999999999,
            -88.50078704625531,
            -82.37794000823277,
            -77.63429889482491,
            -74.00050160861795,
            -71.00985468184027,
            -68.5008789382038,
            -66.00087548867253,
            -63.999962123185846,
            -61.81755447429825,
            -59.828109249704674,
            -57.6773157185634,
            -55.50043312205304,
            -53.49999999999999,
            -51.0,
            -48.507226557728295,
            -45.50058176373157,
            -42.0,
            -37.973710009187414,
            -32.505000829746265,
            -25.999999999999996,
            -16.437250531802924,
            -8.5,
            -4.499999999999999,
            -2.23606797749979,
            -1.4999999999999998,
            -1.5308084989341915e-17,
            1.5308084989341915e-17,
            2.0
          ]
        ],
        "min": -499.5,
        "max": 490.36061165624847,
        "histogram_weights": [
          0.0,
          3.0,
          6.0,
          5.0,
          11.0,
          34.0,
          70.0,
          137.0,
          210.0,
          677.0,
          1297.0,
          2840.0,
          32576.0,
          116994.0,
          45147.0,
          127468.0,
          826.0,
          105.0,
          31.0,
          19.0,
          9.0,
          8.0,
          3.0,
          1.0,
          4.0,
          4.0,
          1.0,
          0.0,
          1.0,
          0.0
        ]
      },
      {
        "name": "y_2",
        "type": "continuous",
        "num_unique_vals": 91652,
        "cuts": [
          [
            -49.98005563745282,
            -39.680315230386086,
            -34.0,
            -30.440386788006563,
            -27.78755783029218,
            -25.344937840133344,
            -23.78430251424195,
            -22.103850274219965,
            -20.81344016468912,
            -19.904450965745717,
            -18.708796201803985,
            -17.829167310673093,
            -16.97033806247893,
            -16.3225304231155,
            -15.909902576697322,
            -15.202446089285193,
            -14.534441853748625,
            -14.000000000000009,
            -13.5,
            -13.0,
            -12.500000000000012,
            -12.255892319685426,
            -12.0,
            -11.815940011533758,
            -11.39832303806731,
            -11.000000000000004,
            -10.677978777335667,
            -10.349365037256849,
            -10.0,
            -9.70142500145333,
            -9.335641193119105,
            -9.0,
            -8.746367905259438,
            -8.5,
            -8.310327217476965,
            -8.000000000000009,
            -8.0,
            -7.999999999999999,
            -7.752482564334109,
            -7.500000000000005,
            -7.298744844189172,
            -7.033533126053662,
            -6.999999999999999,
            -6.756302742945923,
            -6.509579792898981,
            -6.391312312173778,
            -6.1664414373283325,
            -6.000000000000005,
            -5.999999999999999,
            -5.8444886695057106,
            -5.656854249492374,
            -5.5,
            -5.366563145999494,
            -5.156370529141933,
            -5.0,
            -4.919349550499538,
            -4.719942024615678,
            -4.536409014001492,
            -4.5,
            -4.499999999999999,
            -4.326140416277335,
            -4.130778783931873,
            -4.00000000000001,
            -4.000000000000007,
            -4.000000000000006,
            -4.000000000000004,
            -4.0,
            -3.9999999999999996,
            -3.916386052453974,
            -3.747665940288714,
            -3.577708763999664,
            -3.5000000000000036,
            -3.4999999999999996,
            -3.3701792397598234,
            -3.207567430048517,
            -3.075286318181176,
            -3.0,
            -2.9981076595130447,
            -2.8619942760171733,
            -2.7130236338021563,
            -2.5688197193722373,
            -2.5,
            -2.4999999999999996,
            -2.3702320561497796,
            -2.2135943621178646,
            -2.0516269108970193,
            -2.0000000000000067,
            -2.000000000000003,
            -2.0,
            -1.9999999999999998,
            -1.9999999999999953,
            -1.8833330112970033,
            -1.750947903638251,
            -1.576481562736167,
            -1.5,
            -1.4999999999999998,
            -1.4044937663535655,
            -1.2800427460414463,
            -1.118033988749897,
            -1.0000000000000104,
            -1.0,
            -0.9999999999999999,
            -0.9761870601839551,
            -0.8944271909999141,
            -0.7592703877312894,
            -0.6497221227363177,
            -0.5145270260625125,
            -0.49999999999999994,
            -0.4080122405508254,
            -0.29851115706299924,
            -0.16439898730536734,
            -2.2349804084439196e-14,
            -9.705325883242775e-15,
            -8.646749763032531e-15,
            -8.093648477068088e-15,
            -7.595449489746003e-15,
            -7.234810675324265e-15,
            -6.8498857322388525e-15,
            -6.521244205459656e-15,
            -6.107925910747424e-15,
            -5.6639914460565085e-15,
            -5.311905491301645e-15,
            -4.8220467716427036e-15,
            -4.221939475316982e-15,
            -3.658632312452718e-15,
            -3.1687735927937763e-15,
            -2.525834023241416e-15,
            -1.470310833302578e-15,
            -7.420943105551963e-16,
            -4.516658797651601e-16,
            -2.4736477018506546e-16,
            -1.2368238509253273e-16,
            -1.3877787807814457e-17,
            6.938893903907228e-18,
            1.2368238509253273e-16,
            2.4736477018506546e-16,
            6.475977982598199e-16,
            2.4339855133053646e-15,
            3.639652316555382e-15,
            6.107925910747424e-15,
            0.15558871680578168,
            0.284528749398589,
            0.410997468263381,
            0.4999999999999989,
            0.5153253011206627,
            0.6708203932499323,
            0.7750797225122261,
            0.8944271909999199,
            0.9999999999999957,
            1.0,
            1.0000000000000002,
            1.0606601717798192,
            1.1890331833544505,
            1.3416407864998703,
            1.4582914867262469,
            1.5,
            1.5000000000000002,
            1.612451549659715,
            1.788854381999826,
            1.923047895281647,
            1.9999999999999925,
            1.999999999999995,
            1.9999999999999973,
            2.0,
            2.0000000000000004,
            2.000000000000004,
            2.0615528128088307,
            2.2132621402340256,
            2.34615384615385,
            2.4804960841308312,
            2.5,
            2.5000000000000004,
            2.6484237912247695,
            2.793733189965633,
            2.9353597111194665,
            3.0,
            3.0000000000000058,
            3.155179493531191,
            3.320391543176803,
            3.4803685064244556,
            3.5,
            3.5000000000000004,
            3.62466181791867,
            3.822795595538105,
            3.996296416805911,
            3.9999999999999925,
            3.999999999999994,
            3.999999999999996,
            4.0,
            4.000000000000001,
            4.079357016888961,
            4.258073922854078,
            4.465250445211506,
            4.5,
            4.500000000000001,
            4.692284047800149,
            4.912045796732535,
            5.0,
            5.1053974317692585,
            5.3357837507993215,
            5.5,
            5.638385510002918,
            5.866666425114346,
            5.9999999999999964,
            6.000000000000004,
            6.200383844265764,
            6.45705352238486,
            6.541827391331683,
            6.81392017833503,
            6.999999999999996,
            7.00573279327744,
            7.276068751089989,
            7.4999999999999964,
            7.689044722433222,
            7.9999999999999885,
            8.0,
            8.000000000000002,
            8.258808678742907,
            8.499999999999996,
            8.627407266023157,
            8.986733964600923,
            9.08734817794589,
            9.48685117958199,
            9.838699100999081,
            10.04884337185296,
            10.499999999999991,
            10.816653826391962,
            11.02821933140712,
            11.5,
            11.958664438770349,
            12.000000000000002,
            12.499999999999991,
            12.812641353463114,
            13.266989326156363,
            13.83214068214437,
            14.29433941427364,
            14.799999999999999,
            15.365979942618733,
            15.999999999999993,
            16.469498230899013,
            17.08397111228878,
            18.0,
            18.86554685683776,
            20.0,
            20.911385769660257,
            22.273863607376253,
            23.93275116322311,
            25.500000000000007,
            28.0,
            31.0,
            34.568050908965176,
            40.0104313326578,
            51.52974247255429
          ]
        ],
        "min": -654.5,
        "max": 448.0,
        "histogram_weights": [
          0.0,
          2.0,
          1.0,
          0.0,
          0.0,
          0.0,
          0.0,
          0.0,
          5.0,
          3.0,
          8.0,
          5.0,
          12.0,
          35.0,
          117.0,
          1114.0,
          86871.0,
          238632.0,
          1455.0,
          155.0,
          36.0,
          12.0,
          10.0,
          2.0,
          4.0,
          0.0,
          2.0,
          6.0,
          0.0
        ]
      },
      {
        "name": "x_3",
        "type": "continuous",
        "num_unique_vals": 66391,
        "cuts": [
          [
            -160.6115116504995,
            -137.50264493017602,
            -121.99343416230454,
            -108.29375416226009,
            -99.19577038281959,
            -93.67878127481994,
            -90.0,
            -86.99211539476056,
            -84.66404666882873,
            -82.63817597477197,
            -80.78724432998408,
            -79.49979083667779,
            -78.3565407101712,
            -77.00073051255,
            -76.00087049378268,
            -75.14812048750045,
            -74.3839593557626,
            -73.5003223316809,
            -72.75377336992301,
            -72.00005406570335,
            -71.4993823375724,
            -70.79279959209349,
            -70.14746422049055,
            -69.61922761410057,
            -69.00007838012073,
            -68.51871676957232,
            -68.03102960940421,
            -67.5651404159091,
            -67.00091352331384,
            -66.58800089411406,
            -66.20444021217926,
            -65.95726411966277,
            -65.4995581568488,
            -65.00052771364497,
            -64.76610256132071,
            -64.43712138561229,
            -63.99999999999999,
            -63.500125791953614,
            -63.09688959118945,
            -62.99925903100063,
            -62.50055137975107,
            -62.20927247852771,
            -61.99741421540827,
            -61.568193131548846,
            -61.40012384086561,
            -61.0,
            -60.999752550805674,
            -60.50090614273916,
            -60.234977055285285,
            -59.99999999999999,
            -59.56479396605991,
            -59.38564906232641,
            -59.01527994455492,
            -58.99999999999999,
            -58.58138879112183,
            -58.33230680899559,
            -58.0,
            -57.905947999936174,
            -57.50027860483435,
            -57.40352274095416,
            -57.0,
            -56.999854967723955,
            -56.65389669349521,
            -56.499846400574484,
            -56.26646613357224,
            -56.0,
            -55.90593136364528,
            -55.53638386963092,
            -55.49939513597316,
            -55.00016123159835,
            -54.99974741450343,
            -54.63509384640639,
            -54.499688232052094,
            -54.241531034653676,
            -54.00015986242832,
            -53.9986254156815,
            -53.5,
            -53.49988032797485,
            -53.23609404143697,
            -53.00014716634467,
            -52.99998380435168,
            -52.651913159713736,
            -52.49962056558522,
            -52.25323362313457,
            -52.0,
            -51.99945540614128,
            -51.73183780565651,
            -51.50016114037321,
            -51.49999999999999,
            -51.26524163602469,
            -51.0,
            -50.99975432610432,
            -50.754728379040586,
            -50.5,
            -50.3113960410584,
            -50.0,
            -49.99999999999999,
            -49.77336426415529,
            -49.50076053495778,
            -49.49999999999999,
            -49.256351143691106,
            -49.0,
            -48.99999999999999,
            -48.685047852281784,
            -48.49999999999999,
            -48.25722094265961,
            -48.00014367773085,
            -47.99999999999999,
            -47.7505231166745,
            -47.5,
            -47.49869348991384,
            -47.262596937369295,
            -47.0,
            -46.9998403021452,
            -46.74329331261217,
            -46.50116242371667,
            -46.37403652143977,
            -46.0,
            -45.99999999999999,
            -45.752309881682805,
            -45.5,
            -45.499523480373625,
            -45.00071213855708,
            -44.99832707535365,
            -44.724574488399725,
            -44.5,
            -44.49915958994893,
            -44.00001171508592,
            -43.99970968620659,
            -43.5,
            -43.49999999999999,
            -43.24906050733358,
            -43.0,
            -42.99854948450314,
            -42.748778991179265,
            -42.501177925888584,
            -42.49973050135202,
            -42.0,
            -41.99859956505473,
            -41.5,
            -41.49785268622054,
            -41.23516756622632,
            -41.0,
            -40.99995208197955,
            -40.5,
            -40.49967282528182,
            -40.25969460178963,
            -40.0,
            -39.99999999999999,
            -39.50069358934704,
            -39.49999999999999,
            -39.25291648549987,
            -39.00008484144439,
            -38.99999999999999,
            -38.5,
            -38.49999999999999,
            -38.26355968803738,
            -38.00001817387907,
            -37.998481720714096,
            -37.56107606035424,
            -37.4340751886984,
            -37.0,
            -36.99999999999999,
            -36.60120546228708,
            -36.44397582986079,
            -36.00010775829814,
            -35.99800744004959,
            -35.54063928050863,
            -35.48748239125319,
            -35.0,
            -34.99999999999999,
            -34.499524821205284,
            -33.99999999999999,
            -33.50194592600192,
            -33.46991625501395,
            -33.00024420241273,
            -32.99963515778283,
            -32.49988687743431,
            -32.00048076200789,
            -31.772166879759617,
            -31.499999999999996,
            -30.999999999999996,
            -30.298157591807872,
            -29.999999999999996,
            -29.499999999999996,
            -28.999999999999996,
            -28.499999999999996,
            -28.0,
            -27.999999999999996,
            -27.499999999999996,
            -26.999999999999996,
            -26.208702934557998,
            -25.999999999999996,
            -25.39707413128776,
            -24.999999999999996,
            -24.0,
            -23.92592735924775,
            -23.42685569101341,
            -22.852036982746256,
            -22.27396940609286,
            -21.999999999999996,
            -21.421706967020143,
            -20.615232348692153,
            -20.0,
            -19.59351958237891,
            -18.999999999999996,
            -18.03464620919548,
            -17.664797817915584,
            -16.999999999999996,
            -16.20804871413745,
            -15.925799496908704,
            -15.06257555956321,
            -14.459150079502416,
            -13.977998316953009,
            -13.0,
            -12.376893536952265,
            -11.999999999999998,
            -11.0,
            -10.499999999999998,
            -9.984515620633502,
            -9.135321286535639,
            -8.734326344416925,
            -8.0,
            -7.999999999999999,
            -7.1523440239079115,
            -6.7175144212722016,
            -6.0,
            -5.999999999999999,
            -5.0,
            -4.999999999999999,
            -4.5,
            -4.499999999999999,
            -4.0,
            -3.9999999999999996,
            -3.5,
            -3.0,
            -2.9999999999999996,
            -2.5,
            -2.4999999999999996,
            -2.0,
            -1.8233201425065058,
            -1.4142135623730947,
            -0.9999999999999999,
            -1.5308084989341915e-17,
            0.5,
            1.0893470802648584,
            1.8080405840256204,
            2.0000000000000004,
            4.0,
            5.925473904752124,
            10.57525531131026,
            20.0277416923391
          ],
          [
            -82.0264161042921,
            -71.94908972032644,
            -66.50003261306244,
            -62.99925903100063,
            -59.99999999999999,
            -57.49952782774825,
            -55.49939513597316,
            -53.5,
            -51.99945540614128,
            -50.20377283318023,
            -48.86014525471364,
            -47.33025997628579,
            -45.70291847088932,
            -44.00001171508592,
            -42.49973050135202,
            -40.67291460094317,
            -38.962531355837854,
            -36.67151483099655,
            -34.0,
            -31.0,
            -27.036989498372904,
            -22.0,
            -15.205262246998569,
            -8.0,
            -4.0,
            -2.0,
            -1.4142135623730947,
            -1.5308084989341915e-17,
            1.5308084989341915e-17
          ]
        ],
        "min": -480.836444674651,
        "max": 517.4608142718931,
        "histogram_weights": [
          0.0,
          1.0,
          0.0,
          4.0,
          13.0,
          10.0,
          36.0,
          78.0,
          210.0,
          433.0,
          1376.0,
          3486.0,
          61863.0,
          112700.0,
          147209.0,
          931.0,
          77.0,
          29.0,
          10.0,
          5.0,
          5.0,
          3.0,
          2.0,
          0.0,
          4.0,
          1.0,
          0.0,
          0.0,
          1.0,
          0.0
        ]
      },
      {
        "name": "y_3",
        "type": "continuous",
        "num_unique_vals": 86358,
        "cuts": [
          [
            -36.98314974730546,
            -29.000000000000007,
            -24.999999999999996,
            -22.182341018595608,
            -20.139346420993633,
            -18.56329174542013,
            -17.076014774656556,
            -16.0,
            -15.023537796199928,
            -14.090642139346862,
            -13.306824783177175,
            -12.59029244765688,
            -12.143444239256077,
            -11.999999999999998,
            -11.499999999999998,
            -11.005239311520151,
            -10.640831397078783,
            -10.198585113418972,
            -9.841852923383755,
            -9.434352935773745,
            -9.000000000000005,
            -8.749455138055616,
            -8.5,
            -8.289656068425565,
            -8.000000000000007,
            -8.0,
            -7.999999999999999,
            -7.720441676635572,
            -7.4999999999999964,
            -7.220463001364601,
            -7.000000000000005,
            -6.912265313535489,
            -6.641880805814372,
            -6.464024092789898,
            -6.239372292988883,
            -6.010407640085657,
            -5.999999999999999,
            -5.84538313649815,
            -5.651470450197575,
            -5.500000000000001,
            -5.364033449759734,
            -5.176241962306287,
            -5.000000000000002,
            -4.919349550499532,
            -4.722766811759923,
            -4.546734067108096,
            -4.5,
            -4.499999999999999,
            -4.3713215150550475,
            -4.229154724305273,
            -4.085297439895144,
            -4.000000000000007,
            -4.000000000000005,
            -4.0000000000000036,
            -4.0,
            -3.9999999999999996,
            -3.944660293052655,
            -3.8114485097375637,
            -3.6865415005522593,
            -3.569754989481983,
            -3.500000000000003,
            -3.4999999999999973,
            -3.379680662231231,
            -3.242344619995273,
            -3.12347523777212,
            -3.000000000000005,
            -2.9999999999999996,
            -2.906888370749726,
            -2.79381556395647,
            -2.681913598619222,
            -2.5481843032330405,
            -2.5,
            -2.4999999999999996,
            -2.400000000000003,
            -2.2558743193620447,
            -2.142364770687992,
            -2.0253308650409463,
            -2.0000000000000053,
            -2.0000000000000027,
            -2.0,
            -1.9999999999999998,
            -1.9999999999999967,
            -1.9518704000852347,
            -1.8467165929311897,
            -1.767766952966365,
            -1.6528565464440228,
            -1.550434182365097,
            -1.5,
            -1.4999999999999998,
            -1.4142135623730951,
            -1.3370551119684508,
            -1.2237921832171785,
            -1.114172029062311,
            -1.0138888030212612,
            -1.0,
            -0.9999999999999999,
            -0.9863939238321351,
            -0.8985023347608012,
            -0.8252442573362493,
            -0.7071067811865489,
            -0.6324555320336751,
            -0.5322001448887956,
            -0.49999999999999994,
            -0.44112877325628885,
            -0.35347671451276197,
            -0.2480694691784168,
            -0.15617376188860882,
            -0.04006554762643326,
            -8.174517384308582e-15,
            -7.378496964862804e-15,
            -6.827405905246494e-15,
            -6.46496078915344e-15,
            -6.15385016571545e-15,
            -5.908920805885979e-15,
            -5.6639914460565085e-15,
            -5.4448855384344945e-15,
            -5.235365066354935e-15,
            -4.977911573679992e-15,
            -4.760814431685335e-15,
            -4.455426457694233e-15,
            -4.177445517530484e-15,
            -3.843953426135477e-15,
            -3.413702952623247e-15,
            -2.9989934121994693e-15,
            -2.6793791086122765e-15,
            -2.2502884934332615e-15,
            -1.6685812638382688e-15,
            -9.755812929324474e-16,
            -6.114730315587563e-16,
            -4.516658797651601e-16,
            -2.4736477018506546e-16,
            -2.33486982377251e-16,
            -1.2368238509253273e-16,
            -1.167434911886255e-16,
            -1.3877787807814457e-17,
            6.938893903907228e-18,
            1.167434911886255e-16,
            2.1817889738790906e-16,
            3.3492238857653456e-16,
            8.880236745409781e-16,
            2.0665914735611584e-15,
            2.78081451481156e-15,
            3.567402783153254e-15,
            0.039002826358375126,
            0.15811388300841556,
            0.24806946917841644,
            0.3535533905932724,
            0.44721359549995593,
            0.5,
            0.542326144546634,
            0.652773256166305,
            0.7352146220938124,
            0.8380537918072453,
            0.9370425713316382,
            0.9999999999999964,
            1.0,
            1.0000000000000002,
            1.0481948513286676,
            1.1465130655572735,
            1.2738445984989997,
            1.3801807958975716,
            1.4724241192283007,
            1.5,
            1.5000000000000002,
            1.5768984224954663,
            1.6970562748476978,
            1.7888543819998317,
            1.8884864280560993,
            1.9861560625373562,
            1.9999999999999944,
            1.9999999999999964,
            1.9999999999999982,
            2.0,
            2.0000000000000004,
            2.000000000000003,
            2.0504583785202235,
            2.1466252583997982,
            2.247105096447792,
            2.3717082451262868,
            2.487598104577365,
            2.5,
            2.5000000000000004,
            2.6303837968857184,
            2.7526864752799027,
            2.88586278075378,
            2.999999999999995,
            3.0000000000000004,
            3.0987623006705514,
            3.217834948591047,
            3.348375893905959,
            3.4828234916409784,
            3.5,
            3.5000000000000004,
            3.5939551668277137,
            3.7389199221567058,
            3.8657169971088896,
            3.990989439282203,
            3.999999999999994,
            3.999999999999995,
            3.9999999999999964,
            4.0,
            4.000000000000001,
            4.092641009456262,
            4.25437470309069,
            4.442659820127155,
            4.5,
            4.500000000000001,
            4.693339858180978,
            4.8835787726808855,
            4.999999999999999,
            5.0990195135927845,
            5.307300140445593,
            5.4999999999999964,
            5.617975065414267,
            5.831137786002236,
            5.9999999999999964,
            6.0158461682758855,
            6.257409619692548,
            6.482669203345176,
            6.595421613879511,
            6.86653573413918,
            7.0,
            7.140093664739087,
            7.427813527082077,
            7.602631123499291,
            7.903528721109012,
            8.0,
            8.000000000000002,
            8.367479063753489,
            8.500000000000002,
            8.885586158743806,
            9.100000000000001,
            9.500000000000002,
            9.92393484252193,
            10.277402395547236,
            10.728389379663096,
            11.000000000000002,
            11.499999999999995,
            11.999999999999993,
            12.155906949600704,
            12.602090263628313,
            13.193938001976512,
            13.973913920955368,
            14.64984712389882,
            15.636330943057734,
            16.49281984148777,
            17.669910569028364,
            19.046732091288035,
            20.51408141704794,
            22.987799458670175,
            25.54435405887991,
            30.299065016840146,
            38.29813172918419
          ]
        ],
        "min": -626.5,
        "max": 448.0,
        "histogram_weights": [
          0.0,
          2.0,
          0.0,
          0.0,
          0.0,
          0.0,
          0.0,
          1.0,
          2.0,
          6.0,
          1.0,
          5.0,
          22.0,
          36.0,
          300.0,
          25651.0,
          301455.0,
          884.0,
          73.0,
          21.0,
          13.0,
          3.0,
          1.0,
          2.0,
          0.0,
          3.0,
          6.0,
          0.0
        ]
      },
      {
        "name": "x_4",
        "type": "continuous",
        "num_unique_vals": 56999,
        "cuts": [
          [
            -124.87112225560148,
            -107.991358266876,
            -97.12154655624727,
            -87.95571427878693,
            -80.3579393830224,
            -75.23982362736464,
            -71.50660595775206,
            -68.88011751031856,
            -66.53975142668165,
            -64.9993192576766,
            -63.5,
            -62.37929271005307,
            -61.15605995571221,
            -60.29566328518652,
            -59.44402105175868,
            -58.50106835655751,
            -57.999264078130864,
            -57.360098765515076,
            -56.65036995970836,
            -56.058039519369785,
            -55.50043312205304,
            -55.000692895927145,
            -54.50015781454175,
            -54.0,
            -53.75040620586445,
            -53.34393611885426,
            -52.85440020340725,
            -52.49880949681338,
            -51.999772415936135,
            -51.53253011206647,
            -51.25260997026365,
            -50.97944534601872,
            -50.564522712644894,
            -50.37235538919413,
            -50.00012718568601,
            -49.999936305651346,
            -49.5,
            -49.42704645736106,
            -49.07315952568251,
            -48.899350385274836,
            -48.507125007266595,
            -48.373546489791295,
            -48.007347951686555,
            -47.99999999999999,
            -47.5008412275522,
            -47.33755913212685,
            -47.02032201674019,
            -46.99973968341016,
            -46.50004874918284,
            -46.37621669109788,
            -46.00016314486555,
            -45.999393622156646,
            -45.727588935098524,
            -45.50014917160581,
            -45.35893045150996,
            -45.000873345495805,
            -44.99845500313499,
            -44.72135954999579,
            -44.503814291467734,
            -44.49895054967307,
            -44.22647368889979,
            -44.00012898527868,
            -43.99999999999999,
            -43.75596080668872,
            -43.53293775755522,
            -43.49994893958673,
            -43.26013204314388,
            -43.00032908918829,
            -42.99978318019929,
            -42.73739569408026,
            -42.50050587633151,
            -42.499991499488274,
            -42.23837020232269,
            -42.00027613956884,
            -41.99952309759461,
            -41.73869263348774,
            -41.50844598880032,
            -41.49970405428982,
            -41.23414766113562,
            -41.000765334746525,
            -40.99992826386301,
            -40.732725283463765,
            -40.50007662820751,
            -40.498990953017504,
            -40.24924748459718,
            -40.0,
            -39.99999999999999,
            -39.73286476601089,
            -39.50016000504095,
            -39.49968872964921,
            -39.2305063585299,
            -39.00008484144439,
            -38.99994373303876,
            -38.73553836357423,
            -38.50071618224662,
            -38.499104323094606,
            -38.354841738145566,
            -38.16725382876561,
            -38.00155759869361,
            -37.999280108960804,
            -37.8177654108826,
            -37.6564836479073,
            -37.50009538926451,
            -37.49999999999999,
            -37.3185701183161,
            -37.155183628294154,
            -37.0,
            -36.99999999999999,
            -36.76051994023901,
            -36.50033404140732,
            -36.49982912231682,
            -36.33217619448396,
            -36.15517550498328,
            -36.000027032851676,
            -35.99976918606028,
            -35.80591982789226,
            -35.65541436519909,
            -35.50010356224966,
            -35.49851023000566,
            -35.24231629148787,
            -35.0,
            -34.99939532194365,
            -34.76592883405456,
            -34.52412160190153,
            -34.439489511060074,
            -34.23301621364595,
            -34.0,
            -33.999444320495414,
            -33.748079514881184,
            -33.500298407760525,
            -33.499635962553,
            -33.234890124712685,
            -33.000035363975684,
            -32.99999999999999,
            -32.7652045111069,
            -32.5,
            -32.468976304084755,
            -32.2372634824316,
            -32.00048076200789,
            -31.999999999999996,
            -31.77081389238581,
            -31.5,
            -31.499999999999996,
            -31.240364844825788,
            -31.0,
            -30.999999999999996,
            -30.696278549659006,
            -30.499999999999996,
            -30.248311751853272,
            -30.0,
            -29.999999999999996,
            -29.72677944092167,
            -29.5,
            -29.499999999999996,
            -29.2474045926791,
            -29.0,
            -28.999999999999996,
            -28.740471566805457,
            -28.500937957666764,
            -28.335991187532287,
            -28.0,
            -27.999999999999996,
            -27.75043312205304,
            -27.5,
            -27.499999999999996,
            -27.0,
            -26.999999999999996,
            -26.790911540604036,
            -26.5,
            -26.3482461529579,
            -26.0,
            -25.999999999999996,
            -25.5,
            -25.499999999999996,
            -25.238244255444105,
            -25.0,
            -24.999999999999996,
            -24.595926671310146,
            -24.40574256925445,
            -24.0,
            -23.999999999999996,
            -23.632649518364985,
            -23.499999999999996,
            -23.0,
            -22.999999999999996,
            -22.757263316250622,
            -22.5,
            -22.499999999999996,
            -22.0,
            -21.999999999999996,
            -21.585125590594963,
            -21.46625258399798,
            -21.0,
            -20.5,
            -20.0,
            -19.999999999999996,
            -19.499999999999996,
            -19.0,
            -18.50329539189991,
            -18.0,
            -17.999999999999996,
            -17.47233514070124,
            -16.998194099281427,
            -16.499999999999996,
            -16.0,
            -15.999999999999998,
            -15.499999999999998,
            -14.903334410344222,
            -14.185272995685715,
            -13.999999999999998,
            -13.4409319721089,
            -12.999999999999998,
            -12.499999999999998,
            -12.0,
            -11.999999999999998,
            -11.31370849898476,
            -10.958065603208938,
            -10.0,
            -9.742865959774043,
            -9.0,
            -8.606169977916224,
            -8.0,
            -7.999999999999999,
            -7.158574732090946,
            -6.72339019442769,
            -6.0,
            -5.999999999999999,
            -5.366563145999496,
            -4.999999999999999,
            -4.5,
            -4.499999999999999,
            -4.0,
            -3.9999999999999996,
            -3.4999999999999996,
            -3.0,
            -2.9999999999999996,
            -2.5,
            -2.4999999999999996,
            -2.0,
            -1.9999999999999998,
            -1.5,
            -1.4999999999999998,
            -1.0,
            -0.9999999999999999,
            -1.5308084989341915e-17,
            0.5,
            1.0000000000000002,
            2.0,
            2.0000000000000004,
            4.000000000000002,
            10.97749405992107
          ],
          [
            -62.911688553627855,
            -54.75603301069491,
            -50.53464911507726,
            -47.99999999999999,
            -45.70291555701414,
            -43.96689830813645,
            -42.23098532038828,
            -40.99992826386301,
            -39.59717454315327,
            -38.460641278166314,
            -37.0,
            -35.99976918606028,
            -34.64833948017136,
            -33.499635962553,
            -32.24695777844021,
            -31.0,
            -29.61840643923977,
            -28.0,
            -26.38525503094173,
            -24.254116078562383,
            -21.702969103892862,
            -18.198421280276477,
            -13.999999999999998,
            -8.0,
            -4.000918906549748,
            -2.0,
            -1.4142135623730951,
            -1.5308084989341915e-17,
            1.5308084989341915e-17
          ]
        ],
        "min": -355.5,
        "max": 538.0591903384723,
        "histogram_weights": [
          0.0,
          4.0,
          3.0,
          16.0,
          10.0,
          44.0,
          144.0,
          297.0,
          1336.0,
          3729.0,
          85630.0,
          104215.0,
          132863.0,
          148.0,
          21.0,
          8.0,
          6.0,
          5.0,
          1.0,
          0.0,
          1.0,
          0.0,
          1.0,
          4.0,
          0.0,
          0.0,
          0.0,
          0.0,
          1.0,
          0.0
        ]
      },
      {
        "name": "y_4",
        "type": "continuous",
        "num_unique_vals": 77374,
        "cuts": [
          [
            -25.261067068913334,
            -19.839190366872913,
            -16.500000000000004,
            -14.739846572195695,
            -13.269479644594604,
            -12.120315930964928,
            -11.498780315858529,
            -10.59159016905315,
            -9.869522008715453,
            -9.179422885997525,
            -8.735039747316186,
            -8.497058314499203,
            -8.075271460369724,
            -8.0,
            -7.927954102385245,
            -7.599999999999995,
            -7.313832449475338,
            -7.0000000000000036,
            -6.729020700099895,
            -6.451545591211097,
            -6.1448024565347765,
            -5.999999999999999,
            -5.739197925140494,
            -5.5,
            -5.289763426263184,
            -5.044580240031351,
            -4.925937968028512,
            -4.731289765858916,
            -4.567670354034515,
            -4.5,
            -4.486909063172154,
            -4.361172763002719,
            -4.238609596974038,
            -4.10554397485641,
            -4.000000000000006,
            -4.000000000000004,
            -4.0000000000000036,
            -4.0,
            -3.9999999999999996,
            -3.939760784992653,
            -3.8242646351945853,
            -3.708735226614602,
            -3.5883021624103977,
            -3.5000000000000053,
            -3.4999999999999996,
            -3.3973429283555636,
            -3.287665256376897,
            -3.164057478279566,
            -3.07265862989436,
            -3.0,
            -2.9530867987135068,
            -2.846049894151543,
            -2.760788151871164,
            -2.667891875399663,
            -2.549509756796388,
            -2.5,
            -2.4999999999999996,
            -2.4253562503633295,
            -2.3255436683806794,
            -2.228344058124624,
            -2.1418400454426214,
            -2.060839349277232,
            -2.0000000000000058,
            -2.0000000000000036,
            -2.0000000000000018,
            -2.0,
            -1.9999999999999998,
            -1.9999999999999976,
            -1.978412411488446,
            -1.9115580174438986,
            -1.8343409898251695,
            -1.7778005231439904,
            -1.70260981072552,
            -1.619222601642376,
            -1.5378437838901693,
            -1.5,
            -1.4999999999999998,
            -1.4497677960201707,
            -1.3867504905630763,
            -1.3151918984428632,
            -1.2362077583117823,
            -1.1519239826774377,
            -1.0811192711455435,
            -1.000000000000007,
            -1.0,
            -0.9999999999999999,
            -0.993881993727096,
            -0.9458857522624353,
            -0.8944271909999157,
            -0.8310281191431649,
            -0.762038884410789,
            -0.7058865787567872,
            -0.6456367534550195,
            -0.5829988340034962,
            -0.5066524596590057,
            -0.49613893835683387,
            -0.44721359549995837,
            -0.39497625276668363,
            -0.34340140987172224,
            -0.27854300726557785,
            -0.2178938842811382,
            -0.15339299776947396,
            -0.08219949365268528,
            -8.603143764010157e-15,
            -6.15385016571545e-15,
            -5.6477563508330615e-15,
            -5.321203153341962e-15,
            -5.043222213178212e-15,
            -4.79143060166402e-15,
            -4.644419482284985e-15,
            -4.4831820333098616e-15,
            -4.338682966505607e-15,
            -4.1791072020903425e-15,
            -4.091318196320542e-15,
            -3.964794012239556e-15,
            -3.813337256156793e-15,
            -3.668838189352539e-15,
            -3.435351206975287e-15,
            -3.3186077157866617e-15,
            -3.1687735927937763e-15,
            -2.9238442329643056e-15,
            -2.6793791086122765e-15,
            -2.4458921262350253e-15,
            -2.2124051438577745e-15,
            -2.0817838648613346e-15,
            -1.9511625858648947e-15,
            -1.7604297737743201e-15,
            -1.5425603667047054e-15,
            -1.236823850925327e-15,
            -9.020562075079397e-16,
            -5.531012859644436e-16,
            -4.363577947758181e-16,
            -2.4736477018506546e-16,
            -2.33486982377251e-16,
            -1.2368238509253273e-16,
            -1.167434911886255e-16,
            -3.469446951953614e-18,
            1.3877787807814457e-17,
            1.0143540619928357e-16,
            1.2368238509253273e-16,
            2.4042587628115823e-16,
            3.932941341708473e-16,
            8.15774141138851e-16,
            1.423651904008798e-15,
            1.9135106236677395e-15,
            2.2346521227510236e-15,
            2.6793791086122765e-15,
            3.741087722754666e-15,
            0.06454262733698363,
            0.13736056394869053,
            0.20279690715517387,
            0.26952684821167844,
            0.33462469875861034,
            0.39999999999999547,
            0.4570346824829027,
            0.49999999999999806,
            0.5289933294403097,
            0.5967905365636499,
            0.6601058319793908,
            0.707106781186549,
            0.7889320586105317,
            0.854357657716764,
            0.9043668979980508,
            0.9701425001453317,
            0.9999999999999974,
            1.0,
            1.0000000000000002,
            1.0305351384399737,
            1.1043152607484634,
            1.1709614787979445,
            1.2639240088533827,
            1.3416407864998736,
            1.4142135623730945,
            1.4862452520664493,
            1.5,
            1.5000000000000002,
            1.5652475842498457,
            1.6385760607458282,
            1.7163093445682591,
            1.7888543819998315,
            1.8391311978315894,
            1.9175572009470583,
            1.97278784766429,
            1.9999999999999951,
            1.9999999999999964,
            1.9999999999999978,
            1.999999999999999,
            2.0,
            2.0000000000000004,
            2.0000000000000027,
            2.044280236661312,
            2.121320343559643,
            2.2080019651225022,
            2.2885855374829758,
            2.4,
            2.4853794932008477,
            2.5,
            2.5000000000000004,
            2.6038058155586823,
            2.6952187029011148,
            2.808987532707133,
            2.910427500435993,
            2.9999999999999964,
            3.0000000000000027,
            3.111725696005846,
            3.2057802524544767,
            3.3282011773513727,
            3.4458439929432148,
            3.4999999999999973,
            3.5000000000000004,
            3.5777087639996683,
            3.6955238534914217,
            3.800000000000002,
            3.895583555121291,
            3.9999999999999933,
            3.9999999999999956,
            3.999999999999997,
            4.0,
            4.000000000000001,
            4.0647740300819795,
            4.179210022220754,
            4.33039514001411,
            4.467412572869806,
            4.5,
            4.500000000000001,
            4.681796055577049,
            4.890487162662454,
            5.000000000000001,
            5.239627553546361,
            5.459248836514075,
            5.685677011308608,
            5.984445108533942,
            6.1006248000895145,
            6.447963629796121,
            6.699228914568641,
            6.999999999999996,
            7.155417527999327,
            7.499999999999995,
            7.734576515254989,
            7.999999999999997,
            8.000000000000002,
            8.38032076267087,
            8.682541909374507,
            9.05512913076216,
            9.718017579270656,
            10.499999999999995,
            11.334071704414553,
            12.020815280171307,
            13.191217493802654,
            14.799435197021351,
            16.5,
            19.67950325347153,
            25.01587684395884
          ]
        ],
        "min": -593.0,
        "max": 448.0,
        "histogram_weights": [
          0.0,
          1.0,
          0.0,
          0.0,
          0.0,
          0.0,
          0.0,
          0.0,
          1.0,
          1.0,
          1.0,
          2.0,
          0.0,
          3.0,
          22.0,
          20.0,
          175.0,
          40005.0,
          287841.0,
          339.0,
          40.0,
          15.0,
          8.0,
          5.0,
          0.0,
          0.0,
          2.0,
          0.0,
          1.0,
          2.0,
          3.0,
          0.0
        ]
      },
      {
        "name": "x_5",
        "type": "continuous",
        "num_unique_vals": 41860,
        "cuts": [
          [
            -89.20225720107061,
            -76.897407238034,
            -69.61108846081359,
            -63.74636592803662,
            -58.9943690934249,
            -54.803050029898095,
            -51.8333674199266,
            -49.52967951016166,
            -47.675848041397245,
            -46.326617925036786,
            -45.00272309461789,
            -44.00001171508592,
            -43.282936287859854,
            -42.45356019987619,
            -41.68349731783914,
            -41.08720683634093,
            -40.503449381067604,
            -40.00024752322078,
            -39.5137964355352,
            -39.00000105293302,
            -38.500821220069,
            -38.00001817387907,
            -37.64737843763662,
            -37.39079610325592,
            -37.0000196846414,
            -36.804885557491396,
            -36.49958932067908,
            -36.219994437641304,
            -36.00002136750868,
            -35.94812941905076,
            -35.57113240148195,
            -35.37663842142791,
            -35.000368362647805,
            -34.929962698776784,
            -34.569978100600494,
            -34.43544685349676,
            -34.07023895379419,
            -33.99955849670718,
            -33.73834100611374,
            -33.52052148860048,
            -33.49999999999999,
            -33.30167878582118,
            -33.13343657129681,
            -33.00002772461559,
            -32.99975794353123,
            -32.75658891946774,
            -32.50048560045779,
            -32.484939816871695,
            -32.18700067011126,
            -32.00000190548769,
            -31.999999999999996,
            -31.718977164325473,
            -31.5,
            -31.499999999999996,
            -31.215258667130996,
            -31.000033428010084,
            -30.998929452039327,
            -30.772410222893917,
            -30.54785448052811,
            -30.497119481374774,
            -30.316180928980323,
            -30.088946416081434,
            -30.0,
            -29.999999999999996,
            -29.80743534691542,
            -29.60122160387961,
            -29.5,
            -29.499999999999996,
            -29.292543357098268,
            -29.12043955712207,
            -29.0,
            -28.99986837082303,
            -28.844410203711913,
            -28.63966616015665,
            -28.5,
            -28.499999999999996,
            -28.359497107655294,
            -28.21766645290088,
            -28.085998843844237,
            -28.000045322624246,
            -27.999613197338356,
            -27.799464808085943,
            -27.61044854278196,
            -27.500448060071776,
            -27.499999999999996,
            -27.29468812791236,
            -27.16360687503665,
            -27.0,
            -26.999831904895935,
            -26.864851121828217,
            -26.712564018726003,
            -26.530712817977978,
            -26.4999735000795,
            -26.325292180267468,
            -26.19407652517466,
            -26.041645349030006,
            -26.0,
            -25.999962488692503,
            -25.887732153817574,
            -25.728095435481737,
            -25.605725278150125,
            -25.5,
            -25.499804233290035,
            -25.376575169120542,
            -25.288688152585173,
            -25.121946048186757,
            -25.0,
            -24.999811319330703,
            -24.883175315724948,
            -24.77095564365444,
            -24.6176283549186,
            -24.5,
            -24.499787781559355,
            -24.412644748137165,
            -24.331050121192877,
            -24.190957248186706,
            -24.109873517637674,
            -24.03331021727968,
            -24.000004513286267,
            -23.999999999999996,
            -23.838976110956402,
            -23.67345417197145,
            -23.50022124501318,
            -23.499769166741025,
            -23.342235459276896,
            -23.13372189794311,
            -23.0,
            -22.999999999999996,
            -22.896590548235046,
            -22.733647221071223,
            -22.592759611991756,
            -22.500241087563495,
            -22.49916353767682,
            -22.36052641530161,
            -22.192009690824467,
            -22.042770802550685,
            -22.0,
            -21.999999999999996,
            -21.868072518635593,
            -21.633427199762902,
            -21.50026372249038,
            -21.499723767891567,
            -21.346920334087866,
            -21.164355176936994,
            -21.000107008550494,
            -20.999383962453344,
            -20.857071946480172,
            -20.639226897253774,
            -20.5,
            -20.499976040989775,
            -20.385353318570736,
            -20.205473645580206,
            -20.056693163027603,
            -20.00000779301442,
            -19.999999999999993,
            -19.8877383903084,
            -19.684873557571578,
            -19.5,
            -19.499932126460585,
            -19.31947623262009,
            -19.137384151312926,
            -19.0,
            -18.999240860357048,
            -18.74149356590877,
            -18.5,
            -18.49966215599251,
            -18.336297057224442,
            -18.112150617748295,
            -18.0,
            -17.998660729195684,
            -17.888543819998315,
            -17.680847065148672,
            -17.50039559545299,
            -17.49873987715958,
            -17.269791244818183,
            -17.000200760528145,
            -16.999999999999996,
            -16.758821202065892,
            -16.501165418850285,
            -16.499817578891417,
            -16.342042926305375,
            -16.099689437998485,
            -16.000015199401904,
            -15.999999999999998,
            -15.690756326135858,
            -15.500502054781181,
            -15.499999999999998,
            -15.0,
            -14.999999999999998,
            -14.560880150912263,
            -14.499999999999998,
            -14.220505893121635,
            -14.0,
            -13.999999999999998,
            -13.5,
            -13.454260700896198,
            -13.0,
            -12.999999999999998,
            -12.52198067399882,
            -12.298373876248842,
            -12.0,
            -11.999999999999998,
            -11.499999999999998,
            -11.0,
            -10.999999999999998,
            -10.5,
            -10.0,
            -9.999999999999998,
            -9.574367786910177,
            -9.438442367822322,
            -9.0,
            -8.999999999999998,
            -8.497058314499201,
            -8.0,
            -7.999999999999999,
            -7.499999999999999,
            -7.0,
            -6.932781591532356,
            -6.4048067022705695,
            -6.0,
            -5.999999999999999,
            -5.499999999999999,
            -5.0,
            -4.999999999999999,
            -4.5362025376725965,
            -4.47213595499958,
            -4.272001872658765,
            -4.0,
            -3.9999999999999996,
            -3.5,
            -3.4999999999999996,
            -3.0,
            -2.9999999999999996,
            -2.5,
            -2.4999999999999996,
            -2.234346600052771,
            -2.0,
            -1.9999999999999998,
            -1.5,
            -1.4999999999999998,
            -1.0,
            -0.9999999999999999,
            -0.5,
            -3.061616997868383e-17,
            0.5,
            1.0000000000000002,
            2.0,
            2.0000000000000004
          ],
          [
            -44.040313811736524,
            -37.9625825250308,
            -35.012346871478954,
            -33.00002772461559,
            -31.51374233309312,
            -30.0,
            -29.0,
            -28.000045322624246,
            -27.35376119369244,
            -26.236242548992205,
            -25.526554800834365,
            -24.98864607041431,
            -24.000004513286267,
            -23.499769166741025,
            -22.49916353767682,
            -21.999999999999996,
            -21.000107008550494,
            -20.00000779301442,
            -19.340319883029693,
            -18.00522799894846,
            -16.978291835001798,
            -15.500502054781181,
            -13.5,
            -11.0,
            -7.999999999999999,
            -4.0,
            -2.0,
            -1.4999999999999998,
            -3.061616997868383e-17
          ]
        ],
        "min": -199.32168955465184,
        "max": 376.7599544069287,
        "histogram_weights": [
          0.0,
          23.0,
          19.0,
          40.0,
          102.0,
          271.0,
          784.0,
          2190.0,
          18483.0,
          144092.0,
          162055.0,
          388.0,
          24.0,
          3.0,
          2.0,
          3.0,
          1.0,
          2.0,
          0.0,
          0.0,
          0.0,
          0.0,
          0.0,
          2.0,
          0.0,
          0.0,
          0.0,
          0.0,
          3.0,
          0.0
        ]
      },
